<?xml version="1.0"?>
<opencv_storage>
<cascade>
  <stageType>BOOST</stageType>
  <featureType>HAAR</featureType>
  <height>24</height>
  <width>24</width>
  <stageParams>
    <boostType>GAB</boostType>
    <minHitRate>9.9500000476837158e-01</minHitRate>
    <maxFalseAlarm>5.0000000000000000e-01</maxFalseAlarm>
    <weightTrimRate>9.4999999999999996e-01</weightTrimRate>
    <maxDepth>1</maxDepth>
    <maxWeakCount>100</maxWeakCount></stageParams>
  <featureParams>
    <maxCatCount>0</maxCatCount>
    <featSize>1</featSize>
    <mode>BASIC</mode></featureParams>
  <stageNum>12</stageNum>
  <stages>
    <!-- stage 0 -->
    <_>
      <maxWeakCount>2</maxWeakCount>
      <stageThreshold>-8.8502889871597290e-01</stageThreshold>
      <weakClassifiers>
        <_>
          <internalNodes>
            0 -1 17 -4.2777694761753082e-02</internalNodes>
          <leafValues>
            3.4117648005485535e-01 -9.4011974334716797e-01</leafValues></_>
        <_>
          <internalNodes>
            0 -1 15 -3.0065875500440598e-02</internalNodes>
          <leafValues>
            5.5090833455324173e-02 -1.</leafValues></_></weakClassifiers></_>
    <!-- stage 1 -->
    <_>
      <maxWeakCount>3</maxWeakCount>
      <stageThreshold>-1.1352461576461792e+00</stageThreshold>
      <weakClassifiers>
        <_>
          <internalNodes>
            0 -1 29 -1.3102632761001587e-01</internalNodes>
          <leafValues>
            8.7500000000000000e-01 -8.9194315671920776e-01</leafValues></_>
        <_>
          <internalNodes>
            0 -1 35 7.3040172457695007e-02</internalNodes>
          <leafValues>
            -7.3055952787399292e-01 6.3018923997879028e-01</leafValues></_>
        <_>
          <internalNodes>
            0 -1 26 1.3635288923978806e-02</internalNodes>
          <leafValues>
            -7.3262691497802734e-01 4.8725646734237671e-01</leafValues></_></weakClassifiers></_>
    <!-- stage 2 -->
    <_>
      <maxWeakCount>4</maxWeakCount>
      <stageThreshold>-1.6246602535247803e+00</stageThreshold>
      <weakClassifiers>
        <_>
          <internalNodes>
            0 -1 5 -3.2465726137161255e-01</internalNodes>
          <leafValues>
            5.0000000000000000e-01 -9.0724635124206543e-01</leafValues></_>
        <_>
          <internalNodes>
            0 -1 18 -2.0606078207492828e-02</internalNodes>
          <leafValues>
            8.0874764919281006e-01 -6.9630020856857300e-01</leafValues></_>
        <_>
          <internalNodes>
            0 -1 12 1.6035404056310654e-02</internalNodes>
          <leafValues>
            -5.6452649831771851e-01 5.2089917659759521e-01</leafValues></_>
        <_>
          <internalNodes>
            0 -1 0 -1.9255703687667847e-01</internalNodes>
          <leafValues>
            6.2133044004440308e-01 -5.4201292991638184e-01</leafValues></_></weakClassifiers></_>
    <!-- stage 3 -->
    <_>
      <maxWeakCount>3</maxWeakCount>
      <stageThreshold>-1.1389243602752686e+00</stageThreshold>
      <weakClassifiers>
        <_>
          <internalNodes>
            0 -1 8 -2.3288130760192871e-01</internalNodes>
          <leafValues>
            1. -8.8146752119064331e-01</leafValues></_>
        <_>
          <internalNodes>
            0 -1 34 -6.3989900052547455e-02</internalNodes>
          <leafValues>
            6.0062277317047119e-01 -6.8961238861083984e-01</leafValues></_>
        <_>
          <internalNodes>
            0 -1 20 8.5396124050021172e-03</internalNodes>
          <leafValues>
            -7.2072541713714600e-01 4.3215560913085938e-01</leafValues></_></weakClassifiers></_>
    <!-- stage 4 -->
    <_>
      <maxWeakCount>4</maxWeakCount>
      <stageThreshold>-1.6633515357971191e+00</stageThreshold>
      <weakClassifiers>
        <_>
          <internalNodes>
            0 -1 9 -5.5757880210876465e-01</internalNodes>
          <leafValues>
            8.4615385532379150e-01 -8.8124412298202515e-01</leafValues></_>
        <_>
          <internalNodes>
            0 -1 33 -2.0709902048110962e-02</internalNodes>
          <leafValues>
            5.8726853132247925e-01 -6.5542876720428467e-01</leafValues></_>
        <_>
          <internalNodes>
            0 -1 21 1.2033956125378609e-02</internalNodes>
          <leafValues>
            -5.9927880764007568e-01 5.2456557750701904e-01</leafValues></_>
        <_>
          <internalNodes>
            0 -1 30 -3.2995401852531359e-05</internalNodes>
          <leafValues>
            4.7260013222694397e-01 -6.1299389600753784e-01</leafValues></_></weakClassifiers></_>
    <!-- stage 5 -->
    <_>
      <maxWeakCount>3</maxWeakCount>
      <stageThreshold>-1.2721685171127319e+00</stageThreshold>
      <weakClassifiers>
        <_>
          <internalNodes>
            0 -1 6 -6.3917267322540283e-01</internalNodes>
          <leafValues>
            7.4193549156188965e-01 -8.8636362552642822e-01</leafValues></_>
        <_>
          <internalNodes>
            0 -1 31 1.0006497800350189e-01</internalNodes>
          <leafValues>
            -7.0143854618072510e-01 2.6257255673408508e-01</leafValues></_>
        <_>
          <internalNodes>
            0 -1 28 4.0241429815068841e-04</internalNodes>
          <leafValues>
            -6.4837741851806641e-01 4.1073513031005859e-01</leafValues></_></weakClassifiers></_>
    <!-- stage 6 -->
    <_>
      <maxWeakCount>5</maxWeakCount>
      <stageThreshold>-1.4445192813873291e+00</stageThreshold>
      <weakClassifiers>
        <_>
          <internalNodes>
            0 -1 11 -3.5468488931655884e-01</internalNodes>
          <leafValues>
            1. -8.8146752119064331e-01</leafValues></_>
        <_>
          <internalNodes>
            0 -1 3 -5.4150540381669998e-02</internalNodes>
          <leafValues>
            6.1933588981628418e-01 -6.4213579893112183e-01</leafValues></_>
        <_>
          <internalNodes>
            0 -1 36 3.3004856959450990e-05</internalNodes>
          <leafValues>
            2.5999084115028381e-01 -9.3336784839630127e-01</leafValues></_>
        <_>
          <internalNodes>
            0 -1 14 -7.2219436988234520e-03</internalNodes>
          <leafValues>
            4.3893969058990479e-01 -6.2597340345382690e-01</leafValues></_>
        <_>
          <internalNodes>
            0 -1 38 8.3681084215641022e-03</internalNodes>
          <leafValues>
            -6.1984646320343018e-01 5.1363271474838257e-01</leafValues></_></weakClassifiers></_>
    <!-- stage 7 -->
    <_>
      <maxWeakCount>5</maxWeakCount>
      <stageThreshold>-1.8452510833740234e+00</stageThreshold>
      <weakClassifiers>
        <_>
          <internalNodes>
            0 -1 27 -1.4908941090106964e-01</internalNodes>
          <leafValues>
            7.7777779102325439e-01 -8.8113206624984741e-01</leafValues></_>
        <_>
          <internalNodes>
            0 -1 37 5.9704042971134186e-02</internalNodes>
          <leafValues>
            -5.8882600069046021e-01 6.2750566005706787e-01</leafValues></_>
        <_>
          <internalNodes>
            0 -1 39 4.7865969827398658e-04</internalNodes>
          <leafValues>
            2.3362213373184204e-01 -1.</leafValues></_>
        <_>
          <internalNodes>
            0 -1 40 -1.5827259048819542e-03</internalNodes>
          <leafValues>
            -8.3541685342788696e-01 2.4525010585784912e-01</leafValues></_>
        <_>
          <internalNodes>
            0 -1 32 2.9556587105616927e-04</internalNodes>
          <leafValues>
            2.2650180757045746e-01 -9.4138437509536743e-01</leafValues></_></weakClassifiers></_>
    <!-- stage 8 -->
    <_>
      <maxWeakCount>5</maxWeakCount>
      <stageThreshold>-1.5768066644668579e+00</stageThreshold>
      <weakClassifiers>
        <_>
          <internalNodes>
            0 -1 13 -6.4479291439056396e-02</internalNodes>
          <leafValues>
            6.8000000715255737e-01 -8.7570619583129883e-01</leafValues></_>
        <_>
          <internalNodes>
            0 -1 39 -8.6292938794940710e-04</internalNodes>
          <leafValues>
            -8.0740725994110107e-01 2.2114993631839752e-01</leafValues></_>
        <_>
          <internalNodes>
            0 -1 19 9.3422204256057739e-02</internalNodes>
          <leafValues>
            -4.4752979278564453e-01 7.9903119802474976e-01</leafValues></_>
        <_>
          <internalNodes>
            0 -1 1 -3.1074214348336682e-05</internalNodes>
          <leafValues>
            3.5001713037490845e-01 -9.0641921758651733e-01</leafValues></_>
        <_>
          <internalNodes>
            0 -1 2 2.9479534714482725e-04</internalNodes>
          <leafValues>
            2.0381951332092285e-01 -1.</leafValues></_></weakClassifiers></_>
    <!-- stage 9 -->
    <_>
      <maxWeakCount>4</maxWeakCount>
      <stageThreshold>-1.6206470727920532e+00</stageThreshold>
      <weakClassifiers>
        <_>
          <internalNodes>
            0 -1 25 2.2279763221740723e-01</internalNodes>
          <leafValues>
            -8.8124412298202515e-01 8.4615385532379150e-01</leafValues></_>
        <_>
          <internalNodes>
            0 -1 39 -8.5619231685996056e-04</internalNodes>
          <leafValues>
            -8.0756622552871704e-01 2.3599211871623993e-01</leafValues></_>
        <_>
          <internalNodes>
            0 -1 24 -2.3076426237821579e-02</internalNodes>
          <leafValues>
            6.1295819282531738e-01 -5.5098396539688110e-01</leafValues></_>
        <_>
          <internalNodes>
            0 -1 4 -2.3328466340899467e-03</internalNodes>
          <leafValues>
            -5.4479497671127319e-01 6.7109304666519165e-01</leafValues></_></weakClassifiers></_>
    <!-- stage 10 -->
    <_>
      <maxWeakCount>3</maxWeakCount>
      <stageThreshold>-1.2228896617889404e+00</stageThreshold>
      <weakClassifiers>
        <_>
          <internalNodes>
            0 -1 7 -4.5447486639022827e-01</internalNodes>
          <leafValues>
            1. -8.7617260217666626e-01</leafValues></_>
        <_>
          <internalNodes>
            0 -1 39 -9.0224831365048885e-04</internalNodes>
          <leafValues>
            -8.3717721700668335e-01 1.7432983219623566e-01</leafValues></_>
        <_>
          <internalNodes>
            0 -1 22 6.7396494559943676e-03</internalNodes>
          <leafValues>
            -5.2104681730270386e-01 5.7139045000076294e-01</leafValues></_></weakClassifiers></_>
    <!-- stage 11 -->
    <_>
      <maxWeakCount>3</maxWeakCount>
      <stageThreshold>-1.0933814048767090e+00</stageThreshold>
      <weakClassifiers>
        <_>
          <internalNodes>
            0 -1 10 -3.1287109851837158e-01</internalNodes>
          <leafValues>
            1. -8.8679248094558716e-01</leafValues></_>
        <_>
          <internalNodes>
            0 -1 23 1.2584116309881210e-02</internalNodes>
          <leafValues>
            -8.1614106893539429e-01 3.5226750373840332e-01</leafValues></_>
        <_>
          <internalNodes>
            0 -1 16 2.0593684166669846e-02</internalNodes>
          <leafValues>
            -5.5885642766952515e-01 6.7178225517272949e-01</leafValues></_></weakClassifiers></_></stages>
  <features>
    <_>
      <rects>
        <_>
          0 2 16 11 -1.</_>
        <_>
          8 2 8 11 2.</_></rects>
      <tilted>0</tilted></_>
    <_>
      <rects>
        <_>
          1 0 6 13 -1.</_>
        <_>
          4 0 3 13 2.</_></rects>
      <tilted>0</tilted></_>
    <_>
      <rects>
        <_>
          1 1 2 6 -1.</_>
        <_>
          1 4 2 3 2.</_></rects>
      <tilted>0</tilted></_>
    <_>
      <rects>
        <_>
          2 0 12 6 -1.</_>
        <_>
          2 2 12 2 3.</_></rects>
      <tilted>0</tilted></_>
    <_>
      <rects>
        <_>
          2 2 12 1 -1.</_>
        <_>
          8 2 6 1 2.</_></rects>
      <tilted>0</tilted></_>
    <_>
      <rects>
        <_>
          2 6 14 17 -1.</_>
        <_>
          9 6 7 17 2.</_></rects>
      <tilted>0</tilted></_>
    <_>
      <rects>
        <_>
          2 6 21 17 -1.</_>
        <_>
          9 6 7 17 3.</_></rects>
      <tilted>0</tilted></_>
    <_>
      <rects>
        <_>
          2 6 16 18 -1.</_>
        <_>
          10 6 8 18 2.</_></rects>
      <tilted>0</tilted></_>
    <_>
      <rects>
        <_>
          2 7 21 4 -1.</_>
        <_>
          9 7 7 4 3.</_></rects>
      <tilted>0</tilted></_>
    <_>
      <rects>
        <_>
          2 7 21 13 -1.</_>
        <_>
          9 7 7 13 3.</_></rects>
      <tilted>0</tilted></_>
    <_>
      <rects>
        <_>
          3 6 16 15 -1.</_>
        <_>
          11 6 8 15 2.</_></rects>
      <tilted>0</tilted></_>
    <_>
      <rects>
        <_>
          4 7 18 8 -1.</_>
        <_>
          10 7 6 8 3.</_></rects>
      <tilted>0</tilted></_>
    <_>
      <rects>
        <_>
          4 8 9 5 -1.</_>
        <_>
          7 8 3 5 3.</_></rects>
      <tilted>0</tilted></_>
    <_>
      <rects>
        <_>
          4 8 18 1 -1.</_>
        <_>
          10 8 6 1 3.</_></rects>
      <tilted>0</tilted></_>
    <_>
      <rects>
        <_>
          4 19 15 1 -1.</_>
        <_>
          9 19 5 1 3.</_></rects>
      <tilted>0</tilted></_>
    <_>
      <rects>
        <_>
          5 0 10 10 -1.</_>
        <_>
          10 0 5 10 2.</_></rects>
      <tilted>0</tilted></_>
    <_>
      <rects>
        <_>
          5 1 18 8 -1.</_>
        <_>
          5 1 9 4 2.</_>
        <_>
          14 5 9 4 2.</_></rects>
      <tilted>0</tilted></_>
    <_>
      <rects>
        <_>
          5 6 8 5 -1.</_>
        <_>
          9 6 4 5 2.</_></rects>
      <tilted>0</tilted></_>
    <_>
      <rects>
        <_>
          6 0 13 2 -1.</_>
        <_>
          6 1 13 1 2.</_></rects>
      <tilted>0</tilted></_>
    <_>
      <rects>
        <_>
          6 3 14 8 -1.</_>
        <_>
          6 7 14 4 2.</_></rects>
      <tilted>0</tilted></_>
    <_>
      <rects>
        <_>
          7 10 17 9 -1.</_>
        <_>
          7 13 17 3 3.</_></rects>
      <tilted>0</tilted></_>
    <_>
      <rects>
        <_>
          7 13 10 9 -1.</_>
        <_>
          7 16 10 3 3.</_></rects>
      <tilted>0</tilted></_>
    <_>
      <rects>
        <_>
          8 3 5 4 -1.</_>
        <_>
          8 5 5 2 2.</_></rects>
      <tilted>0</tilted></_>
    <_>
      <rects>
        <_>
          9 9 14 4 -1.</_>
        <_>
          9 11 14 2 2.</_></rects>
      <tilted>0</tilted></_>
    <_>
      <rects>
        <_>
          10 1 12 6 -1.</_>
        <_>
          10 1 6 3 2.</_>
        <_>
          16 4 6 3 2.</_></rects>
      <tilted>0</tilted></_>
    <_>
      <rects>
        <_>
          10 7 14 7 -1.</_>
        <_>
          17 7 7 7 2.</_></rects>
      <tilted>0</tilted></_>
    <_>
      <rects>
        <_>
          11 5 4 12 -1.</_>
        <_>
          11 9 4 4 3.</_></rects>
      <tilted>0</tilted></_>
    <_>
      <rects>
        <_>
          12 1 5 14 -1.</_>
        <_>
          12 8 5 7 2.</_></rects>
      <tilted>0</tilted></_>
    <_>
      <rects>
        <_>
          12 17 3 5 -1.</_>
        <_>
          13 17 1 5 3.</_></rects>
      <tilted>0</tilted></_>
    <_>
      <rects>
        <_>
          13 1 3 21 -1.</_>
        <_>
          13 8 3 7 3.</_></rects>
      <tilted>0</tilted></_>
    <_>
      <rects>
        <_>
          13 21 2 2 -1.</_>
        <_>
          13 21 1 1 2.</_>
        <_>
          14 22 1 1 2.</_></rects>
      <tilted>0</tilted></_>
    <_>
      <rects>
        <_>
          15 2 4 22 -1.</_>
        <_>
          15 13 4 11 2.</_></rects>
      <tilted>0</tilted></_>
    <_>
      <rects>
        <_>
          16 3 8 2 -1.</_>
        <_>
          16 3 4 1 2.</_>
        <_>
          20 4 4 1 2.</_></rects>
      <tilted>0</tilted></_>
    <_>
      <rects>
        <_>
          18 0 2 9 -1.</_>
        <_>
          18 3 2 3 3.</_></rects>
      <tilted>0</tilted></_>
    <_>
      <rects>
        <_>
          18 0 2 24 -1.</_>
        <_>
          18 8 2 8 3.</_></rects>
      <tilted>0</tilted></_>
    <_>
      <rects>
        <_>
          18 2 6 17 -1.</_>
        <_>
          21 2 3 17 2.</_></rects>
      <tilted>0</tilted></_>
    <_>
      <rects>
        <_>
          20 1 4 1 -1.</_>
        <_>
          22 1 2 1 2.</_></rects>
      <tilted>0</tilted></_>
    <_>
      <rects>
        <_>
          20 4 4 10 -1.</_>
        <_>
          22 4 2 10 2.</_></rects>
      <tilted>0</tilted></_>
    <_>
      <rects>
        <_>
          20 10 4 14 -1.</_>
        <_>
          22 10 2 14 2.</_></rects>
      <tilted>0</tilted></_>
    <_>
      <rects>
        <_>
          23 1 1 15 -1.</_>
        <_>
          23 6 1 5 3.</_></rects>
      <tilted>0</tilted></_>
    <_>
      <rects>
        <_>
          23 3 1 15 -1.</_>
        <_>
          23 8 1 5 3.</_></rects>
      <tilted>0</tilted></_></features></cascade>
</opencv_storage>
